{
  "w1": [
    [
      1.1696497389231513,
      -2.1046266648645755,
      -0.9739079993200718,
      -0.8727120155496858
    ],
    [
      1.0582505794041095,
      -2.049403616453794,
      3.1789159861064658,
      1.487184395071076
    ],
    [
      -0.6935640095832893,
      0.509374159566561,
      -1.0147299373107372,
      -0.4902484976112485
    ],
    [
      -0.26985237385925975,
      0.5707512355611187,
      -1.1892676016516979,
      -0.7955694571820403
    ],
    [
      0.4728964995199649,
      -0.632843033154805,
      0.3963252944368145,
      1.1145505691212612
    ],
    [
      -0.6907241315681767,
      0.38333717891011854,
      -0.6470102957287106,
      2.347912457485462
    ],
    [
      -0.04125289890469465,
      -0.3362119678700158,
      1.0070123345762938,
      0.5649410526111847
    ],
    [
      0.47676641548919163,
      -0.12987073076598912,
      0.2935761772175604,
      -0.0010124437710567974
    ]
  ],
  "b1": [
    0.6587534560126199,
    -1.7720296753854186,
    0.2998734715905163,
    0.39854732383391167,
    2.376746432966632,
    -0.2785769068275106,
    -0.393900479322164,
    1.158352980927126
  ],
  "w2": [
    [
      0.2878719220989341,
      -0.626424418358122,
      1.2289973962629255,
      1.3918513643066528,
      -1.1802047790656052,
      0.42466930330376584,
      -0.16646846942462892,
      -0.7643558385508484
    ],
    [
      1.4072591034370492,
      -1.7679769223749393,
      -0.8186728959073841,
      -0.8640100258179138,
      1.5263236203402024,
      -1.4312795603763024,
      -0.09876476362660229,
      0.23706636027528996
    ],
    [
      -1.355413930692629,
      2.3856497184621768,
      -0.3753742683786992,
      0.014624685699047922,
      0.012985901388238996,
      2.0317862057326033,
      0.8318911980110879,
      -0.4558266718969233
    ]
  ],
  "b2": [
    -0.31114919698366095,
    1.7525694712713968,
    -1.4414202742876976
  ]
}